<?xml version="1.0"?>
<opencv_storage>
<opencv_ml_lr>
  <format>3</format>
  <classifier>"Logistic Regression Classifier"</classifier>
  <alpha>1.0000000000000000e-03</alpha>
  <iterations>10</iterations>
  <norm>1</norm>
  <train_method>0</train_method>
  <learnt_thetas type_id="opencv-matrix">
    <rows>1</rows>
    <cols>785</cols>
    <dt>f</dt>
    <data>
      6.91463038e-06 0. 0. 0. 0. 0. 0. 0. 0. 0. 0. 0. 0. 0. 0.
      -1.87036421e-04 0. 0. 0. 0. 0. 0. 0. 0. 0. 0. 0. 0. 0. 0. 0. 0. 0.
      0. 0. 0. 0. 0. -1.87036421e-04 -1.87036421e-04 -1.87036421e-04
      -1.87036421e-04 -1.87036421e-04 -1.87036421e-04 -1.87036421e-04
      -1.87036421e-04 -1.87036421e-04 -1.87036421e-04 0. 0. 0. 0. 0. 0.
      0. 0. 0. 0. 0. 0. 0. 0. 0. 0. -1.87036421e-04 -1.87036421e-04
      -1.87036421e-04 -1.87036421e-04 -1.87036421e-04 -1.87036421e-04
      -3.73282266e-04 -5.59529057e-04 -5.59529057e-04 -7.45775062e-04
      -3.73282266e-04 -3.73282266e-04 -1.87036421e-04 0. 0. 0. 0. 0. 0.
      0. 0. 0. 0. 0. 0. 0. 0. -1.87036421e-04 -1.87036421e-04
      -1.87036421e-04 0. -1.86245801e-04 -7.45002297e-04 -9.31249117e-04
      -1.30374264e-03 -1.30374264e-03 -1.11749501e-03 -9.31231189e-04
      -7.44985358e-04 -7.45775062e-04 -7.45775062e-04 -5.59528184e-04
      -3.73282353e-04 0. 0. 0. 0. 0. 0. 0. 0. 0. 0. 0. -1.87036421e-04
      -1.87036421e-04 -1.87036421e-04 0. -3.72509618e-04 -1.30374299e-03
      -1.48999062e-03 -1.48999062e-03 -1.48999062e-03 -1.30374392e-03
      -1.30374392e-03 -1.30374392e-03 -1.48999062e-03 -1.30374264e-03
      -9.31231189e-04 -7.45775062e-04 -7.45775062e-04 -3.72491690e-04 0.
      0. 0. 0. 0. 0. 0. 0. 0. -1.87036421e-04 -1.87036421e-04 0.
      -1.86245801e-04 -9.31249233e-04 -1.30374299e-03 -1.48999062e-03
      -1.48999924e-03 -1.30375254e-03 -1.11750572e-03 -7.45012017e-04
      -9.31259827e-04 -1.11752353e-03 -1.11752353e-03 -1.30377035e-03
      -1.30374392e-03 -1.11747894e-03 -1.30451540e-03 -7.45775062e-04
      -3.72491690e-04 -1.86245903e-04 0. 0. 0. 0. 0. 0. -1.87036421e-04
      -1.87036421e-04 0. -1.86245801e-04 -9.31249233e-04 -1.48999062e-03
      -1.48999924e-03 -1.11750443e-03 -5.58764033e-04 -3.72518116e-04
      -3.72518116e-04 -1.86272315e-04 -1.86272315e-04 -3.72518116e-04
      -5.58766129e-04 -7.45029829e-04 -9.31277580e-04 -9.31252143e-04
      -1.11747894e-03 -1.30451540e-03 -7.45775062e-04 -1.86245903e-04 0.
      0. 0. 0. 0. 0. 6.24712673e-04 6.24712673e-04 6.25503308e-04
      -1.19500124e-04 -4.91993793e-04 -6.78249984e-04 6.67373752e-05
      6.25476823e-04 6.25476823e-04 6.25476823e-04 6.25476823e-04
      6.25476823e-04 6.25476823e-04 6.25476823e-04 6.25476823e-04
      6.25476823e-04 2.52965110e-04 6.67192508e-05 6.67353015e-05
      6.67629574e-05 -1.30451540e-03 2.53010629e-04 6.25503191e-04
      8.11749196e-04 0. 8.11749196e-04 8.11749196e-04 6.24712673e-04
      6.24712673e-04 6.25503308e-04 2.52993777e-04 -4.91993793e-04
      -6.78249984e-04 6.67373752e-05 6.25476823e-04 6.25476823e-04
      8.11749196e-04 8.11749196e-04 8.11749196e-04 8.11749196e-04
      8.11749196e-04 8.11749196e-04 8.11749196e-04 6.25476823e-04
      6.25476823e-04 4.39213065e-04 6.67192508e-05 -1.19509568e-04
      -3.06519447e-04 -3.06519418e-04 4.39256459e-04 8.11749196e-04 0.
      0. 8.11749196e-04 6.24712673e-04 -1.87036421e-04 -5.58755361e-04
      -1.11749629e-03 -1.48999924e-03 -9.31258604e-04 -1.86272315e-04
      -1.86272315e-04 2.00895913e-04 2.00895913e-04 2.00895913e-04 0. 0.
      0. 0. 0. 0. 0. -3.72536073e-04 -5.58784057e-04 2.52983067e-04
      2.53010687e-04 -1.11826858e-03 -5.58738597e-04 0. 0. 0. 0.
      -1.87036421e-04 -1.86245801e-04 -7.45001424e-04 -1.49001507e-03
      -1.30375347e-03 -3.72520037e-04 -1.86272315e-04 0. 2.00895913e-04
      2.00895913e-04 2.00895913e-04 0. 0. 0. 0. 0. 0. 0. 2.59838009e-04
      -1.12698071e-04 8.14788291e-05 -4.77259717e-04 -6.72183640e-04
      -9.31232120e-04 0. 0. 0. -1.87036421e-04 4.69159568e-05
      -1.30641871e-04 -5.03134681e-04 -6.58546458e-04 8.64390749e-05
      4.58932715e-04 9.05043038e-04 1.10593904e-03 9.11777955e-04
      9.11777955e-04 9.05043038e-04 9.05043038e-04 9.05043038e-04
      9.05043038e-04 9.05043038e-04 9.02431610e-04 9.02431610e-04
      9.02431610e-04 9.02431610e-04 4.82215546e-04 3.34243901e-04
      -3.82309299e-05 -2.25266049e-04 -6.33881951e-04 3.83017796e-05 0.
      0. -1.87036421e-04 4.69159568e-05 -3.17678379e-04 -1.06190180e-03
      -6.58548495e-04 5.32522972e-04 9.05043038e-04 1.10593904e-03
      1.10593904e-03 1.10593904e-03 1.11952331e-03 1.11952331e-03
      1.11952331e-03 1.11952331e-03 1.11952331e-03 1.11952331e-03
      1.32728671e-03 1.55183533e-03 1.55183533e-03 1.29199727e-03
      1.10573357e-03 9.19461134e-04 3.60738486e-04 -3.40602055e-05
      -4.16790455e-04 3.08447125e-05 0. 0. -1.87036421e-04
      -7.45791942e-04 -1.50114123e-04 -6.70561567e-04 -2.98070867e-04
      9.07676062e-04 1.30168744e-03 1.04184926e-03 1.04184926e-03
      1.04184926e-03 8.40953435e-04 8.40953435e-04 8.40953435e-04
      8.40953435e-04 8.40953435e-04 1.05804484e-03 1.05804484e-03
      1.04446081e-03 1.04446081e-03 1.37354434e-03 1.22033723e-03
      8.09542544e-04 2.42878057e-04 -1.30402943e-04 5.58684842e-05
      8.01644230e-04 5.36847219e-04 0. 1.42047211e-04 -2.08944621e-04
      4.46014528e-05 -3.27875576e-04 4.31759050e-04 1.17677182e-03
      1.17677182e-03 1.17677182e-03 1.17677182e-03 1.37093291e-03
      1.15645269e-03 9.62291553e-04 9.62291553e-04 9.62291553e-04
      9.62291553e-04 9.62291553e-04 7.54528213e-04 5.29979530e-04
      5.29979530e-04 5.29979530e-04 1.42819859e-04 -4.15920920e-04
      -6.02175132e-04 -5.81446802e-04 2.50246885e-05 7.70799641e-04
      5.36847219e-04 2.07763500e-04 3.49810754e-04 -2.08944621e-04
      -1.69878767e-04 -7.66906305e-04 -7.26971302e-06 7.37743103e-04
      5.29979530e-04 5.29979530e-04 5.29979530e-04 5.29979530e-04
      5.29979530e-04 5.29979530e-04 5.29979530e-04 5.29979530e-04
      5.29979530e-04 5.29979530e-04 5.29979530e-04 5.29979530e-04
      5.29979530e-04 2.00895913e-04 -3.72509676e-04 -7.45004509e-04
      -1.11750467e-03 -1.11829489e-03 -5.58738364e-04 0. 0.
      2.07763500e-04 2.07270805e-05 -5.58755361e-04 -1.11752248e-03
      -1.30375347e-03 -5.44116832e-04 1.46499888e-05 2.00895913e-04
      2.00895913e-04 2.00895913e-04 2.00895913e-04 2.00895913e-04
      2.00895913e-04 2.00895913e-04 2.00895913e-04 2.00895913e-04
      2.00895913e-04 2.00895913e-04 0. 0. -1.86245903e-04
      -5.58756466e-04 -9.31276823e-04 -7.45011610e-04 -1.11829489e-03
      -5.58738364e-04 0. 0. 0. -3.73282266e-04 -5.58755361e-04
      -9.31250222e-04 -1.30375347e-03 -7.45012774e-04 -3.72518174e-04
      -1.86272315e-04 0. 0. 0. 0. 0. 0. 0. 0. 0. 0. 0. -1.86245903e-04
      -1.86245903e-04 -7.45004509e-04 -9.31258837e-04 -1.11829489e-03
      -9.32047202e-04 0. 0. 0. 0. -3.73282266e-04 -5.59546170e-04
      -7.45003286e-04 -1.11750758e-03 -9.31258604e-04 -3.72518174e-04
      -3.72518174e-04 -1.86272315e-04 0. 0. 0. 0. 0. 0. 0. 0.
      -1.86245903e-04 -1.86245903e-04 -1.86245903e-04 -7.45028898e-04
      -9.31276823e-04 -1.11750641e-03 -1.11829489e-03 -7.45774887e-04 0.
      0. 0. 0. -3.73282266e-04 -5.59546170e-04 -5.58755361e-04
      -9.31233284e-04 -7.44987279e-04 -7.45011726e-04 -5.58764033e-04
      -3.72518174e-04 -1.86272315e-04 0. 0. 0. 0. 0. 0. -1.86245903e-04
      -1.86245903e-04 -3.72518174e-04 -3.72518174e-04 -1.11752353e-03
      -1.49001682e-03 -1.11829489e-03 -9.32047202e-04 0. 0. 0. 0. 0. 0.
      -3.73282266e-04 -3.72509618e-04 -7.44986406e-04 -9.31233284e-04
      -7.44986290e-04 -9.31258546e-04 -7.45011726e-04 -5.58764033e-04
      -3.72518174e-04 -1.86272315e-04 -1.86272315e-04 -3.72518174e-04
      -3.72518174e-04 -3.72518174e-04 -3.72518174e-04 -5.58765139e-04
      -5.58765139e-04 -9.31275659e-04 -1.11752353e-03 -1.11750641e-03
      -9.32048133e-04 -5.59528009e-04 0. 0. 0. 0. 0. 0. -1.87036421e-04
      -5.59546170e-04 -1.86245801e-04 -5.58740634e-04 -9.31233284e-04
      -9.31232120e-04 -9.31258546e-04 -9.31258546e-04 -7.45010911e-04
      -7.45010911e-04 -7.45010911e-04 -7.45010911e-04 -5.58765139e-04
      -5.58765139e-04 -5.58765139e-04 -7.45010911e-04 -9.31275543e-04
      -1.30376930e-03 -1.11752353e-03 -7.45775760e-04 -5.59528009e-04 0.
      0. 0. 0. 0. 0. 0. 0. -3.73300223e-04 -5.59546170e-04
      -3.72493785e-04 -5.58740634e-04 -9.31233284e-04 -7.44986115e-04
      -9.31232120e-04 -9.31258546e-04 -9.31258546e-04 -9.31258546e-04
      -7.45010911e-04 -7.45010911e-04 -7.45010911e-04 -5.58764907e-04
      -1.11752248e-03 -1.30377035e-03 -9.31251212e-04 -7.45775760e-04
      -5.59528009e-04 0. 0. 0. 0. 0. 0. 0. 0. 0. 0. -3.73300223e-04
      -5.59546170e-04 -5.58740634e-04 -5.58740634e-04 -5.58740634e-04
      -3.72493785e-04 -7.44987337e-04 -9.31233284e-04 -7.44985242e-04
      -7.44985242e-04 -7.44987337e-04 -7.44987337e-04 -1.11749792e-03
      -1.11749792e-03 -1.11749792e-03 -7.45775760e-04 -3.73282266e-04 0.
      0. 0. 0. 0. 0. 0. 0. 0. 0. 0. -1.86263787e-04 -3.73300223e-04
      -3.73300223e-04 -7.45777157e-04 -5.58740634e-04 -5.58740634e-04
      -3.72493785e-04 -3.72493785e-04 -3.72493785e-04 -7.44987337e-04
      -9.31251212e-04 -1.11749792e-03 -1.11749792e-03 -1.30453450e-03
      -3.73282266e-04 -3.73282266e-04 0. 0. 0. 0. 0. 0. 0. 0. 0. 0. 0.
      0. 0. -1.86263787e-04 -3.73300223e-04 -3.73300223e-04
      -5.59547043e-04 -5.59547043e-04 -7.45792815e-04 -7.45792815e-04
      -7.45004392e-04 -9.32040799e-04 -7.45792815e-04 -7.45792815e-04
      -5.59529173e-04 -3.73282266e-04 -1.87036421e-04 0. 0. 0. 0. 0. 0.
      0. 0. 0. 0. 0. 0. 0. 0. 0. 0. -3.73300223e-04 -3.73300223e-04
      -3.73300223e-04 -5.59547043e-04 -5.59547043e-04 -5.59547043e-04
      -5.59547043e-04 -3.73283285e-04 -1.87036421e-04 -1.87036421e-04 0.
      0. 0. 0. 0. 0. 0. 0. 0. 0. 0. 0. 0. 0. 0. 0. 0. 0. 0. 0. 0. 0.
      -1.87036421e-04 -1.87036421e-04 0. 0. 0. 0. 0. 0. 0. 0. 0. 0. 0.
      0. 0. 0. 0.</data></learnt_thetas>
  <n_labels type_id="opencv-matrix">
    <rows>2</rows>
    <cols>1</cols>
    <dt>i</dt>
    <data>
      0 1</data></n_labels>
  <o_labels type_id="opencv-matrix">
    <rows>2</rows>
    <cols>1</cols>
    <dt>i</dt>
    <data>
      0 1</data></o_labels></opencv_ml_lr>
</opencv_storage>
